digraph Tree {
node [shape=box, style="filled, rounded", color="black", fontname="helvetica"] ;
edge [fontname="helvetica"] ;
0 [label="age <= 69.5\ngini = 0.042\nsamples = 36628\nvalue = [35836, 792]\nclass = 0", fillcolor="#e6843d"] ;
1 [label="age <= 59.5\ngini = 0.034\nsamples = 31620\nvalue = [31065, 555]\nclass = 0", fillcolor="#e5833d"] ;
0 -> 1 [labeldistance=2.5, labelangle=45, headlabel="True"] ;
2 [label="age <= 49.5\ngini = 0.027\nsamples = 19581\nvalue = [19312, 269]\nclass = 0", fillcolor="#e5833c"] ;
1 -> 2 ;
3 [label="implant <= 0.5\ngini = 0.019\nsamples = 7112\nvalue = [7045, 67]\nclass = 0", fillcolor="#e5823b"] ;
2 -> 3 ;
4 [label="age <= 41.5\ngini = 0.02\nsamples = 6742\nvalue = [6675, 67]\nclass = 0", fillcolor="#e5823b"] ;
3 -> 4 ;
5 [label="laterality_R <= 0.5\ngini = 0.026\nsamples = 1441\nvalue = [1422, 19]\nclass = 0", fillcolor="#e5833c"] ;
4 -> 5 ;
6 [label="age <= 37.5\ngini = 0.039\nsamples = 702\nvalue = [688, 14]\nclass = 0", fillcolor="#e6843d"] ;
5 -> 6 ;
7 [label="gini = 0.0\nsamples = 83\nvalue = [83, 0]\nclass = 0", fillcolor="#e58139"] ;
6 -> 7 ;
8 [label="age <= 39.5\ngini = 0.044\nsamples = 619\nvalue = [605, 14]\nclass = 0", fillcolor="#e6843e"] ;
6 -> 8 ;
9 [label="age <= 38.5\ngini = 0.142\nsamples = 65\nvalue = [60, 5]\nclass = 0", fillcolor="#e78c49"] ;
8 -> 9 ;
10 [label="view_CC <= 0.5\ngini = 0.1\nsamples = 38\nvalue = [36, 2]\nclass = 0", fillcolor="#e68844"] ;
9 -> 10 ;
11 [label="gini = 0.091\nsamples = 21\nvalue = [20, 1]\nclass = 0", fillcolor="#e68743"] ;
10 -> 11 ;
12 [label="gini = 0.111\nsamples = 17\nvalue = [16, 1]\nclass = 0", fillcolor="#e78945"] ;
10 -> 12 ;
13 [label="view_MLO <= 0.5\ngini = 0.198\nsamples = 27\nvalue = [24, 3]\nclass = 0", fillcolor="#e89152"] ;
9 -> 13 ;
14 [label="gini = 0.245\nsamples = 14\nvalue = [12, 2]\nclass = 0", fillcolor="#e9965a"] ;
13 -> 14 ;
15 [label="gini = 0.142\nsamples = 13\nvalue = [12, 1]\nclass = 0", fillcolor="#e78c49"] ;
13 -> 15 ;
16 [label="view_MLO <= 0.5\ngini = 0.032\nsamples = 554\nvalue = [545, 9]\nclass = 0", fillcolor="#e5833c"] ;
8 -> 16 ;
17 [label="age <= 40.5\ngini = 0.022\nsamples = 273\nvalue = [270, 3]\nclass = 0", fillcolor="#e5823b"] ;
16 -> 17 ;
18 [label="view_CC <= 0.5\ngini = 0.029\nsamples = 137\nvalue = [135, 2]\nclass = 0", fillcolor="#e5833c"] ;
17 -> 18 ;
19 [label="gini = 0.0\nsamples = 1\nvalue = [1, 0]\nclass = 0", fillcolor="#e58139"] ;
18 -> 19 ;
20 [label="gini = 0.029\nsamples = 136\nvalue = [134, 2]\nclass = 0", fillcolor="#e5833c"] ;
18 -> 20 ;
21 [label="gini = 0.015\nsamples = 136\nvalue = [135, 1]\nclass = 0", fillcolor="#e5823a"] ;
17 -> 21 ;
22 [label="age <= 40.5\ngini = 0.042\nsamples = 281\nvalue = [275, 6]\nclass = 0", fillcolor="#e6843d"] ;
16 -> 22 ;
23 [label="gini = 0.03\nsamples = 132\nvalue = [130, 2]\nclass = 0", fillcolor="#e5833c"] ;
22 -> 23 ;
24 [label="gini = 0.052\nsamples = 149\nvalue = [145, 4]\nclass = 0", fillcolor="#e6843e"] ;
22 -> 24 ;
25 [label="age <= 39.5\ngini = 0.013\nsamples = 739\nvalue = [734, 5]\nclass = 0", fillcolor="#e5823a"] ;
5 -> 25 ;
26 [label="gini = 0.0\nsamples = 151\nvalue = [151, 0]\nclass = 0", fillcolor="#e58139"] ;
25 -> 26 ;
27 [label="age <= 40.5\ngini = 0.017\nsamples = 588\nvalue = [583, 5]\nclass = 0", fillcolor="#e5823b"] ;
25 -> 27 ;
28 [label="view_MLO <= 0.5\ngini = 0.02\nsamples = 299\nvalue = [296, 3]\nclass = 0", fillcolor="#e5823b"] ;
27 -> 28 ;
29 [label="gini = 0.013\nsamples = 149\nvalue = [148, 1]\nclass = 0", fillcolor="#e5823a"] ;
28 -> 29 ;
30 [label="gini = 0.026\nsamples = 150\nvalue = [148, 2]\nclass = 0", fillcolor="#e5833c"] ;
28 -> 30 ;
31 [label="view_CC <= 0.5\ngini = 0.014\nsamples = 289\nvalue = [287, 2]\nclass = 0", fillcolor="#e5823a"] ;
27 -> 31 ;
32 [label="view_MLO <= 0.5\ngini = 0.013\nsamples = 153\nvalue = [152, 1]\nclass = 0", fillcolor="#e5823a"] ;
31 -> 32 ;
33 [label="gini = 0.0\nsamples = 1\nvalue = [1, 0]\nclass = 0", fillcolor="#e58139"] ;
32 -> 33 ;
34 [label="gini = 0.013\nsamples = 152\nvalue = [151, 1]\nclass = 0", fillcolor="#e5823a"] ;
32 -> 34 ;
35 [label="gini = 0.015\nsamples = 136\nvalue = [135, 1]\nclass = 0", fillcolor="#e5823a"] ;
31 -> 35 ;
36 [label="age <= 44.5\ngini = 0.018\nsamples = 5301\nvalue = [5253, 48]\nclass = 0", fillcolor="#e5823b"] ;
4 -> 36 ;
37 [label="age <= 43.5\ngini = 0.011\nsamples = 1772\nvalue = [1762, 10]\nclass = 0", fillcolor="#e5823a"] ;
36 -> 37 ;
38 [label="laterality_R <= 0.5\ngini = 0.014\nsamples = 1241\nvalue = [1232, 9]\nclass = 0", fillcolor="#e5823a"] ;
37 -> 38 ;
39 [label="age <= 42.5\ngini = 0.006\nsamples = 625\nvalue = [623, 2]\nclass = 0", fillcolor="#e5813a"] ;
38 -> 39 ;
40 [label="gini = 0.0\nsamples = 306\nvalue = [306, 0]\nclass = 0", fillcolor="#e58139"] ;
39 -> 40 ;
41 [label="view_CC <= 0.5\ngini = 0.012\nsamples = 319\nvalue = [317, 2]\nclass = 0", fillcolor="#e5823a"] ;
39 -> 41 ;
42 [label="gini = 0.012\nsamples = 161\nvalue = [160, 1]\nclass = 0", fillcolor="#e5823a"] ;
41 -> 42 ;
43 [label="gini = 0.013\nsamples = 158\nvalue = [157, 1]\nclass = 0", fillcolor="#e5823a"] ;
41 -> 43 ;
44 [label="age <= 42.5\ngini = 0.022\nsamples = 616\nvalue = [609, 7]\nclass = 0", fillcolor="#e5823b"] ;
38 -> 44 ;
45 [label="view_MLO <= 0.5\ngini = 0.013\nsamples = 299\nvalue = [297, 2]\nclass = 0", fillcolor="#e5823a"] ;
44 -> 45 ;
46 [label="view_CC <= 0.5\ngini = 0.013\nsamples = 150\nvalue = [149, 1]\nclass = 0", fillcolor="#e5823a"] ;
45 -> 46 ;
47 [label="gini = 0.0\nsamples = 1\nvalue = [1, 0]\nclass = 0", fillcolor="#e58139"] ;
46 -> 47 ;
48 [label="gini = 0.013\nsamples = 149\nvalue = [148, 1]\nclass = 0", fillcolor="#e5823a"] ;
46 -> 48 ;
49 [label="gini = 0.013\nsamples = 149\nvalue = [148, 1]\nclass = 0", fillcolor="#e5823a"] ;
45 -> 49 ;
50 [label="view_CC <= 0.5\ngini = 0.031\nsamples = 317\nvalue = [312, 5]\nclass = 0", fillcolor="#e5833c"] ;
44 -> 50 ;
51 [label="gini = 0.025\nsamples = 155\nvalue = [153, 2]\nclass = 0", fillcolor="#e5833c"] ;
50 -> 51 ;
52 [label="gini = 0.036\nsamples = 162\nvalue = [159, 3]\nclass = 0", fillcolor="#e5833d"] ;
50 -> 52 ;
53 [label="view_CC <= 0.5\ngini = 0.004\nsamples = 531\nvalue = [530, 1]\nclass = 0", fillcolor="#e58139"] ;
37 -> 53 ;
54 [label="gini = 0.0\nsamples = 270\nvalue = [270, 0]\nclass = 0", fillcolor="#e58139"] ;
53 -> 54 ;
55 [label="laterality_R <= 0.5\ngini = 0.008\nsamples = 261\nvalue = [260, 1]\nclass = 0", fillcolor="#e5813a"] ;
53 -> 55 ;
56 [label="gini = 0.016\nsamples = 128\nvalue = [127, 1]\nclass = 0", fillcolor="#e5823b"] ;
55 -> 56 ;
57 [label="gini = 0.0\nsamples = 133\nvalue = [133, 0]\nclass = 0", fillcolor="#e58139"] ;
55 -> 57 ;
58 [label="age <= 45.5\ngini = 0.021\nsamples = 3529\nvalue = [3491, 38]\nclass = 0", fillcolor="#e5823b"] ;
36 -> 58 ;
59 [label="view_CC <= 0.5\ngini = 0.031\nsamples = 707\nvalue = [696, 11]\nclass = 0", fillcolor="#e5833c"] ;
58 -> 59 ;
60 [label="laterality_R <= 0.5\ngini = 0.033\nsamples = 354\nvalue = [348, 6]\nclass = 0", fillcolor="#e5833c"] ;
59 -> 60 ;
61 [label="gini = 0.033\nsamples = 178\nvalue = [175, 3]\nclass = 0", fillcolor="#e5833c"] ;
60 -> 61 ;
62 [label="gini = 0.034\nsamples = 176\nvalue = [173, 3]\nclass = 0", fillcolor="#e5833c"] ;
60 -> 62 ;
63 [label="laterality_R <= 0.5\ngini = 0.028\nsamples = 353\nvalue = [348, 5]\nclass = 0", fillcolor="#e5833c"] ;
59 -> 63 ;
64 [label="gini = 0.024\nsamples = 166\nvalue = [164, 2]\nclass = 0", fillcolor="#e5833b"] ;
63 -> 64 ;
65 [label="gini = 0.032\nsamples = 187\nvalue = [184, 3]\nclass = 0", fillcolor="#e5833c"] ;
63 -> 65 ;
66 [label="age <= 48.5\ngini = 0.019\nsamples = 2822\nvalue = [2795, 27]\nclass = 0", fillcolor="#e5823b"] ;
58 -> 66 ;
67 [label="age <= 47.5\ngini = 0.02\nsamples = 2047\nvalue = [2026, 21]\nclass = 0", fillcolor="#e5823b"] ;
66 -> 67 ;
68 [label="laterality_R <= 0.5\ngini = 0.019\nsamples = 1350\nvalue = [1337, 13]\nclass = 0", fillcolor="#e5823b"] ;
67 -> 68 ;
69 [label="age <= 46.5\ngini = 0.015\nsamples = 659\nvalue = [654, 5]\nclass = 0", fillcolor="#e5823b"] ;
68 -> 69 ;
70 [label="view_CC <= 0.5\ngini = 0.012\nsamples = 345\nvalue = [343, 2]\nclass = 0", fillcolor="#e5823a"] ;
69 -> 70 ;
71 [label="gini = 0.023\nsamples = 175\nvalue = [173, 2]\nclass = 0", fillcolor="#e5823b"] ;
70 -> 71 ;
72 [label="gini = 0.0\nsamples = 170\nvalue = [170, 0]\nclass = 0", fillcolor="#e58139"] ;
70 -> 72 ;
73 [label="view_CC <= 0.5\ngini = 0.019\nsamples = 314\nvalue = [311, 3]\nclass = 0", fillcolor="#e5823b"] ;
69 -> 73 ;
74 [label="gini = 0.012\nsamples = 163\nvalue = [162, 1]\nclass = 0", fillcolor="#e5823a"] ;
73 -> 74 ;
75 [label="gini = 0.026\nsamples = 151\nvalue = [149, 2]\nclass = 0", fillcolor="#e5833c"] ;
73 -> 75 ;
76 [label="age <= 46.5\ngini = 0.023\nsamples = 691\nvalue = [683, 8]\nclass = 0", fillcolor="#e5823b"] ;
68 -> 76 ;
77 [label="view_MLO <= 0.5\ngini = 0.033\nsamples = 362\nvalue = [356, 6]\nclass = 0", fillcolor="#e5833c"] ;
76 -> 77 ;
78 [label="gini = 0.046\nsamples = 168\nvalue = [164, 4]\nclass = 0", fillcolor="#e6843e"] ;
77 -> 78 ;
79 [label="gini = 0.02\nsamples = 194\nvalue = [192, 2]\nclass = 0", fillcolor="#e5823b"] ;
77 -> 79 ;
80 [label="view_MLO <= 0.5\ngini = 0.012\nsamples = 329\nvalue = [327, 2]\nclass = 0", fillcolor="#e5823a"] ;
76 -> 80 ;
81 [label="view_LM <= 0.5\ngini = 0.011\nsamples = 177\nvalue = [176, 1]\nclass = 0", fillcolor="#e5823a"] ;
80 -> 81 ;
82 [label="gini = 0.011\nsamples = 176\nvalue = [175, 1]\nclass = 0", fillcolor="#e5823a"] ;
81 -> 82 ;
83 [label="gini = 0.0\nsamples = 1\nvalue = [1, 0]\nclass = 0", fillcolor="#e58139"] ;
81 -> 83 ;
84 [label="gini = 0.013\nsamples = 152\nvalue = [151, 1]\nclass = 0", fillcolor="#e5823a"] ;
80 -> 84 ;
85 [label="laterality_R <= 0.5\ngini = 0.023\nsamples = 697\nvalue = [689, 8]\nclass = 0", fillcolor="#e5823b"] ;
67 -> 85 ;
86 [label="view_MLO <= 0.5\ngini = 0.028\nsamples = 352\nvalue = [347, 5]\nclass = 0", fillcolor="#e5833c"] ;
85 -> 86 ;
87 [label="gini = 0.034\nsamples = 173\nvalue = [170, 3]\nclass = 0", fillcolor="#e5833c"] ;
86 -> 87 ;
88 [label="gini = 0.022\nsamples = 179\nvalue = [177, 2]\nclass = 0", fillcolor="#e5823b"] ;
86 -> 88 ;
89 [label="view_MLO <= 0.5\ngini = 0.017\nsamples = 345\nvalue = [342, 3]\nclass = 0", fillcolor="#e5823b"] ;
85 -> 89 ;
90 [label="gini = 0.0\nsamples = 159\nvalue = [159, 0]\nclass = 0", fillcolor="#e58139"] ;
89 -> 90 ;
91 [label="gini = 0.032\nsamples = 186\nvalue = [183, 3]\nclass = 0", fillcolor="#e5833c"] ;
89 -> 91 ;
92 [label="view_LMO <= 0.5\ngini = 0.015\nsamples = 775\nvalue = [769, 6]\nclass = 0", fillcolor="#e5823b"] ;
66 -> 92 ;
93 [label="view_MLO <= 0.5\ngini = 0.015\nsamples = 774\nvalue = [768, 6]\nclass = 0", fillcolor="#e5823b"] ;
92 -> 93 ;
94 [label="laterality_R <= 0.5\ngini = 0.015\nsamples = 389\nvalue = [386, 3]\nclass = 0", fillcolor="#e5823b"] ;
93 -> 94 ;
95 [label="gini = 0.02\nsamples = 198\nvalue = [196, 2]\nclass = 0", fillcolor="#e5823b"] ;
94 -> 95 ;
96 [label="gini = 0.01\nsamples = 191\nvalue = [190, 1]\nclass = 0", fillcolor="#e5823a"] ;
94 -> 96 ;
97 [label="laterality_R <= 0.5\ngini = 0.015\nsamples = 385\nvalue = [382, 3]\nclass = 0", fillcolor="#e5823b"] ;
93 -> 97 ;
98 [label="gini = 0.011\nsamples = 189\nvalue = [188, 1]\nclass = 0", fillcolor="#e5823a"] ;
97 -> 98 ;
99 [label="gini = 0.02\nsamples = 196\nvalue = [194, 2]\nclass = 0", fillcolor="#e5823b"] ;
97 -> 99 ;
100 [label="gini = 0.0\nsamples = 1\nvalue = [1, 0]\nclass = 0", fillcolor="#e58139"] ;
92 -> 100 ;
101 [label="gini = 0.0\nsamples = 370\nvalue = [370, 0]\nclass = 0", fillcolor="#e58139"] ;
3 -> 101 ;
102 [label="laterality_R <= 0.5\ngini = 0.032\nsamples = 12469\nvalue = [12267, 202]\nclass = 0", fillcolor="#e5833c"] ;
2 -> 102 ;
103 [label="age <= 52.5\ngini = 0.025\nsamples = 6171\nvalue = [6094, 77]\nclass = 0", fillcolor="#e5833c"] ;
102 -> 103 ;
104 [label="implant <= 0.5\ngini = 0.017\nsamples = 1929\nvalue = [1912, 17]\nclass = 0", fillcolor="#e5823b"] ;
103 -> 104 ;
105 [label="view_CC <= 0.5\ngini = 0.018\nsamples = 1879\nvalue = [1862, 17]\nclass = 0", fillcolor="#e5823b"] ;
104 -> 105 ;
106 [label="age <= 51.5\ngini = 0.02\nsamples = 966\nvalue = [956, 10]\nclass = 0", fillcolor="#e5823b"] ;
105 -> 106 ;
107 [label="age <= 50.5\ngini = 0.022\nsamples = 638\nvalue = [631, 7]\nclass = 0", fillcolor="#e5823b"] ;
106 -> 107 ;
108 [label="gini = 0.02\nsamples = 396\nvalue = [392, 4]\nclass = 0", fillcolor="#e5823b"] ;
107 -> 108 ;
109 [label="gini = 0.024\nsamples = 242\nvalue = [239, 3]\nclass = 0", fillcolor="#e5833b"] ;
107 -> 109 ;
110 [label="gini = 0.018\nsamples = 328\nvalue = [325, 3]\nclass = 0", fillcolor="#e5823b"] ;
106 -> 110 ;
111 [label="age <= 50.5\ngini = 0.015\nsamples = 913\nvalue = [906, 7]\nclass = 0", fillcolor="#e5823b"] ;
105 -> 111 ;
112 [label="gini = 0.011\nsamples = 360\nvalue = [358, 2]\nclass = 0", fillcolor="#e5823a"] ;
111 -> 112 ;
113 [label="age <= 51.5\ngini = 0.018\nsamples = 553\nvalue = [548, 5]\nclass = 0", fillcolor="#e5823b"] ;
111 -> 113 ;
114 [label="gini = 0.016\nsamples = 246\nvalue = [244, 2]\nclass = 0", fillcolor="#e5823b"] ;
113 -> 114 ;
115 [label="gini = 0.019\nsamples = 307\nvalue = [304, 3]\nclass = 0", fillcolor="#e5823b"] ;
113 -> 115 ;
116 [label="gini = 0.0\nsamples = 50\nvalue = [50, 0]\nclass = 0", fillcolor="#e58139"] ;
104 -> 116 ;
117 [label="implant <= 0.5\ngini = 0.028\nsamples = 4242\nvalue = [4182, 60]\nclass = 0", fillcolor="#e5833c"] ;
103 -> 117 ;
118 [label="age <= 56.5\ngini = 0.029\nsamples = 4147\nvalue = [4087, 60]\nclass = 0", fillcolor="#e5833c"] ;
117 -> 118 ;
119 [label="age <= 55.5\ngini = 0.031\nsamples = 2275\nvalue = [2239, 36]\nclass = 0", fillcolor="#e5833c"] ;
118 -> 119 ;
120 [label="age <= 54.5\ngini = 0.029\nsamples = 1675\nvalue = [1650, 25]\nclass = 0", fillcolor="#e5833c"] ;
119 -> 120 ;
121 [label="view_MLO <= 0.5\ngini = 0.033\nsamples = 1131\nvalue = [1112, 19]\nclass = 0", fillcolor="#e5833c"] ;
120 -> 121 ;
122 [label="view_CC <= 0.5\ngini = 0.031\nsamples = 565\nvalue = [556, 9]\nclass = 0", fillcolor="#e5833c"] ;
121 -> 122 ;
123 [label="gini = 0.0\nsamples = 1\nvalue = [1, 0]\nclass = 0", fillcolor="#e58139"] ;
122 -> 123 ;
124 [label="age <= 53.5\ngini = 0.031\nsamples = 564\nvalue = [555, 9]\nclass = 0", fillcolor="#e5833c"] ;
122 -> 124 ;
125 [label="gini = 0.032\nsamples = 244\nvalue = [240, 4]\nclass = 0", fillcolor="#e5833c"] ;
124 -> 125 ;
126 [label="gini = 0.031\nsamples = 320\nvalue = [315, 5]\nclass = 0", fillcolor="#e5833c"] ;
124 -> 126 ;
127 [label="age <= 53.5\ngini = 0.035\nsamples = 566\nvalue = [556, 10]\nclass = 0", fillcolor="#e5833d"] ;
121 -> 127 ;
128 [label="gini = 0.032\nsamples = 246\nvalue = [242, 4]\nclass = 0", fillcolor="#e5833c"] ;
127 -> 128 ;
129 [label="gini = 0.037\nsamples = 320\nvalue = [314, 6]\nclass = 0", fillcolor="#e5833d"] ;
127 -> 129 ;
130 [label="view_CC <= 0.5\ngini = 0.022\nsamples = 544\nvalue = [538, 6]\nclass = 0", fillcolor="#e5823b"] ;
120 -> 130 ;
131 [label="view_MLO <= 0.5\ngini = 0.021\nsamples = 277\nvalue = [274, 3]\nclass = 0", fillcolor="#e5823b"] ;
130 -> 131 ;
132 [label="gini = 0.0\nsamples = 1\nvalue = [1, 0]\nclass = 0", fillcolor="#e58139"] ;
131 -> 132 ;
133 [label="gini = 0.022\nsamples = 276\nvalue = [273, 3]\nclass = 0", fillcolor="#e5823b"] ;
131 -> 133 ;
134 [label="gini = 0.022\nsamples = 267\nvalue = [264, 3]\nclass = 0", fillcolor="#e5823b"] ;
130 -> 134 ;
135 [label="view_CC <= 0.5\ngini = 0.036\nsamples = 600\nvalue = [589, 11]\nclass = 0", fillcolor="#e5833d"] ;
119 -> 135 ;
136 [label="gini = 0.039\nsamples = 299\nvalue = [293, 6]\nclass = 0", fillcolor="#e6843d"] ;
135 -> 136 ;
137 [label="gini = 0.033\nsamples = 301\nvalue = [296, 5]\nclass = 0", fillcolor="#e5833c"] ;
135 -> 137 ;
138 [label="age <= 57.5\ngini = 0.025\nsamples = 1872\nvalue = [1848, 24]\nclass = 0", fillcolor="#e5833c"] ;
118 -> 138 ;
139 [label="view_MLO <= 0.5\ngini = 0.012\nsamples = 641\nvalue = [637, 4]\nclass = 0", fillcolor="#e5823a"] ;
138 -> 139 ;
140 [label="gini = 0.006\nsamples = 311\nvalue = [310, 1]\nclass = 0", fillcolor="#e5813a"] ;
139 -> 140 ;
141 [label="gini = 0.018\nsamples = 330\nvalue = [327, 3]\nclass = 0", fillcolor="#e5823b"] ;
139 -> 141 ;
142 [label="age <= 58.5\ngini = 0.032\nsamples = 1231\nvalue = [1211, 20]\nclass = 0", fillcolor="#e5833c"] ;
138 -> 142 ;
143 [label="view_CC <= 0.5\ngini = 0.039\nsamples = 603\nvalue = [591, 12]\nclass = 0", fillcolor="#e6843d"] ;
142 -> 143 ;
144 [label="gini = 0.038\nsamples = 309\nvalue = [303, 6]\nclass = 0", fillcolor="#e6833d"] ;
143 -> 144 ;
145 [label="gini = 0.04\nsamples = 294\nvalue = [288, 6]\nclass = 0", fillcolor="#e6843d"] ;
143 -> 145 ;
146 [label="view_CC <= 0.5\ngini = 0.025\nsamples = 628\nvalue = [620, 8]\nclass = 0", fillcolor="#e5833c"] ;
142 -> 146 ;
147 [label="gini = 0.019\nsamples = 321\nvalue = [318, 3]\nclass = 0", fillcolor="#e5823b"] ;
146 -> 147 ;
148 [label="gini = 0.032\nsamples = 307\nvalue = [302, 5]\nclass = 0", fillcolor="#e5833c"] ;
146 -> 148 ;
149 [label="gini = 0.0\nsamples = 95\nvalue = [95, 0]\nclass = 0", fillcolor="#e58139"] ;
117 -> 149 ;
150 [label="implant <= 0.5\ngini = 0.039\nsamples = 6298\nvalue = [6173, 125]\nclass = 0", fillcolor="#e6843d"] ;
102 -> 150 ;
151 [label="age <= 58.5\ngini = 0.04\nsamples = 6145\nvalue = [6020, 125]\nclass = 0", fillcolor="#e6843d"] ;
150 -> 151 ;
152 [label="age <= 54.5\ngini = 0.041\nsamples = 5520\nvalue = [5405, 115]\nclass = 0", fillcolor="#e6843d"] ;
151 -> 152 ;
153 [label="age <= 53.5\ngini = 0.038\nsamples = 3066\nvalue = [3006, 60]\nclass = 0", fillcolor="#e6843d"] ;
152 -> 153 ;
154 [label="age <= 51.5\ngini = 0.041\nsamples = 2421\nvalue = [2370, 51]\nclass = 0", fillcolor="#e6843d"] ;
153 -> 154 ;
155 [label="age <= 50.5\ngini = 0.036\nsamples = 1250\nvalue = [1227, 23]\nclass = 0", fillcolor="#e5833d"] ;
154 -> 155 ;
156 [label="view_CC <= 0.5\ngini = 0.047\nsamples = 745\nvalue = [727, 18]\nclass = 0", fillcolor="#e6843e"] ;
155 -> 156 ;
157 [label="gini = 0.047\nsamples = 372\nvalue = [363, 9]\nclass = 0", fillcolor="#e6843e"] ;
156 -> 157 ;
158 [label="gini = 0.047\nsamples = 373\nvalue = [364, 9]\nclass = 0", fillcolor="#e6843e"] ;
156 -> 158 ;
159 [label="view_MLO <= 0.5\ngini = 0.02\nsamples = 505\nvalue = [500, 5]\nclass = 0", fillcolor="#e5823b"] ;
155 -> 159 ;
160 [label="gini = 0.016\nsamples = 248\nvalue = [246, 2]\nclass = 0", fillcolor="#e5823b"] ;
159 -> 160 ;
161 [label="gini = 0.023\nsamples = 257\nvalue = [254, 3]\nclass = 0", fillcolor="#e5823b"] ;
159 -> 161 ;
162 [label="age <= 52.5\ngini = 0.047\nsamples = 1171\nvalue = [1143, 28]\nclass = 0", fillcolor="#e6843e"] ;
154 -> 162 ;
163 [label="view_MLO <= 0.5\ngini = 0.046\nsamples = 639\nvalue = [624, 15]\nclass = 0", fillcolor="#e6843e"] ;
162 -> 163 ;
164 [label="gini = 0.049\nsamples = 321\nvalue = [313, 8]\nclass = 0", fillcolor="#e6843e"] ;
163 -> 164 ;
165 [label="gini = 0.043\nsamples = 318\nvalue = [311, 7]\nclass = 0", fillcolor="#e6843d"] ;
163 -> 165 ;
166 [label="view_MLO <= 0.5\ngini = 0.048\nsamples = 532\nvalue = [519, 13]\nclass = 0", fillcolor="#e6843e"] ;
162 -> 166 ;
167 [label="gini = 0.044\nsamples = 266\nvalue = [260, 6]\nclass = 0", fillcolor="#e6843e"] ;
166 -> 167 ;
168 [label="gini = 0.051\nsamples = 266\nvalue = [259, 7]\nclass = 0", fillcolor="#e6843e"] ;
166 -> 168 ;
169 [label="view_MLO <= 0.5\ngini = 0.028\nsamples = 645\nvalue = [636, 9]\nclass = 0", fillcolor="#e5833c"] ;
153 -> 169 ;
170 [label="gini = 0.031\nsamples = 321\nvalue = [316, 5]\nclass = 0", fillcolor="#e5833c"] ;
169 -> 170 ;
171 [label="gini = 0.024\nsamples = 324\nvalue = [320, 4]\nclass = 0", fillcolor="#e5833b"] ;
169 -> 171 ;
172 [label="age <= 55.5\ngini = 0.044\nsamples = 2454\nvalue = [2399, 55]\nclass = 0", fillcolor="#e6843e"] ;
152 -> 172 ;
173 [label="view_MLO <= 0.5\ngini = 0.057\nsamples = 574\nvalue = [557, 17]\nclass = 0", fillcolor="#e6853f"] ;
172 -> 173 ;
174 [label="view_ML <= 0.5\ngini = 0.047\nsamples = 288\nvalue = [281, 7]\nclass = 0", fillcolor="#e6843e"] ;
173 -> 174 ;
175 [label="gini = 0.048\nsamples = 287\nvalue = [280, 7]\nclass = 0", fillcolor="#e6843e"] ;
174 -> 175 ;
176 [label="gini = 0.0\nsamples = 1\nvalue = [1, 0]\nclass = 0", fillcolor="#e58139"] ;
174 -> 176 ;
177 [label="gini = 0.067\nsamples = 286\nvalue = [276, 10]\nclass = 0", fillcolor="#e68640"] ;
173 -> 177 ;
178 [label="age <= 56.5\ngini = 0.04\nsamples = 1880\nvalue = [1842, 38]\nclass = 0", fillcolor="#e6843d"] ;
172 -> 178 ;
179 [label="view_CC <= 0.5\ngini = 0.042\nsamples = 613\nvalue = [600, 13]\nclass = 0", fillcolor="#e6843d"] ;
178 -> 179 ;
180 [label="view_MLO <= 0.5\ngini = 0.032\nsamples = 303\nvalue = [298, 5]\nclass = 0", fillcolor="#e5833c"] ;
179 -> 180 ;
181 [label="gini = 0.0\nsamples = 1\nvalue = [1, 0]\nclass = 0", fillcolor="#e58139"] ;
180 -> 181 ;
182 [label="gini = 0.033\nsamples = 302\nvalue = [297, 5]\nclass = 0", fillcolor="#e5833c"] ;
180 -> 182 ;
183 [label="gini = 0.05\nsamples = 310\nvalue = [302, 8]\nclass = 0", fillcolor="#e6843e"] ;
179 -> 183 ;
184 [label="view_MLO <= 0.5\ngini = 0.039\nsamples = 1267\nvalue = [1242, 25]\nclass = 0", fillcolor="#e6843d"] ;
178 -> 184 ;
185 [label="age <= 57.5\ngini = 0.035\nsamples = 612\nvalue = [601, 11]\nclass = 0", fillcolor="#e5833d"] ;
184 -> 185 ;
186 [label="view_CC <= 0.5\ngini = 0.031\nsamples = 314\nvalue = [309, 5]\nclass = 0", fillcolor="#e5833c"] ;
185 -> 186 ;
187 [label="gini = 0.0\nsamples = 1\nvalue = [1, 0]\nclass = 0", fillcolor="#e58139"] ;
186 -> 187 ;
188 [label="gini = 0.031\nsamples = 313\nvalue = [308, 5]\nclass = 0", fillcolor="#e5833c"] ;
186 -> 188 ;
189 [label="view_CC <= 0.5\ngini = 0.039\nsamples = 298\nvalue = [292, 6]\nclass = 0", fillcolor="#e6843d"] ;
185 -> 189 ;
190 [label="gini = 0.0\nsamples = 1\nvalue = [1, 0]\nclass = 0", fillcolor="#e58139"] ;
189 -> 190 ;
191 [label="gini = 0.04\nsamples = 297\nvalue = [291, 6]\nclass = 0", fillcolor="#e6843d"] ;
189 -> 191 ;
192 [label="age <= 57.5\ngini = 0.042\nsamples = 655\nvalue = [641, 14]\nclass = 0", fillcolor="#e6843d"] ;
184 -> 192 ;
193 [label="gini = 0.042\nsamples = 330\nvalue = [323, 7]\nclass = 0", fillcolor="#e6843d"] ;
192 -> 193 ;
194 [label="gini = 0.042\nsamples = 325\nvalue = [318, 7]\nclass = 0", fillcolor="#e6843d"] ;
192 -> 194 ;
195 [label="view_MLO <= 0.5\ngini = 0.031\nsamples = 625\nvalue = [615, 10]\nclass = 0", fillcolor="#e5833c"] ;
151 -> 195 ;
196 [label="gini = 0.033\nsamples = 301\nvalue = [296, 5]\nclass = 0", fillcolor="#e5833c"] ;
195 -> 196 ;
197 [label="gini = 0.03\nsamples = 324\nvalue = [319, 5]\nclass = 0", fillcolor="#e5833c"] ;
195 -> 197 ;
198 [label="gini = 0.0\nsamples = 153\nvalue = [153, 0]\nclass = 0", fillcolor="#e58139"] ;
150 -> 198 ;
199 [label="laterality_R <= 0.5\ngini = 0.046\nsamples = 12039\nvalue = [11753, 286]\nclass = 0", fillcolor="#e6843e"] ;
1 -> 199 ;
200 [label="age <= 65.5\ngini = 0.051\nsamples = 5937\nvalue = [5781, 156]\nclass = 0", fillcolor="#e6843e"] ;
199 -> 200 ;
201 [label="age <= 62.5\ngini = 0.058\nsamples = 3748\nvalue = [3636, 112]\nclass = 0", fillcolor="#e6853f"] ;
200 -> 201 ;
202 [label="age <= 61.5\ngini = 0.049\nsamples = 1894\nvalue = [1846, 48]\nclass = 0", fillcolor="#e6843e"] ;
201 -> 202 ;
203 [label="age <= 60.5\ngini = 0.061\nsamples = 1213\nvalue = [1175, 38]\nclass = 0", fillcolor="#e6853f"] ;
202 -> 203 ;
204 [label="implant <= 0.5\ngini = 0.046\nsamples = 598\nvalue = [584, 14]\nclass = 0", fillcolor="#e6843e"] ;
203 -> 204 ;
205 [label="view_CC <= 0.5\ngini = 0.047\nsamples = 583\nvalue = [569, 14]\nclass = 0", fillcolor="#e6843e"] ;
204 -> 205 ;
206 [label="gini = 0.048\nsamples = 283\nvalue = [276, 7]\nclass = 0", fillcolor="#e6843e"] ;
205 -> 206 ;
207 [label="gini = 0.046\nsamples = 300\nvalue = [293, 7]\nclass = 0", fillcolor="#e6843e"] ;
205 -> 207 ;
208 [label="gini = 0.0\nsamples = 15\nvalue = [15, 0]\nclass = 0", fillcolor="#e58139"] ;
204 -> 208 ;
209 [label="implant <= 0.5\ngini = 0.075\nsamples = 615\nvalue = [591, 24]\nclass = 0", fillcolor="#e68641"] ;
203 -> 209 ;
210 [label="view_MLO <= 0.5\ngini = 0.076\nsamples = 605\nvalue = [581, 24]\nclass = 0", fillcolor="#e68641"] ;
209 -> 210 ;
211 [label="gini = 0.08\nsamples = 311\nvalue = [298, 13]\nclass = 0", fillcolor="#e68642"] ;
210 -> 211 ;
212 [label="gini = 0.072\nsamples = 294\nvalue = [283, 11]\nclass = 0", fillcolor="#e68641"] ;
210 -> 212 ;
213 [label="gini = 0.0\nsamples = 10\nvalue = [10, 0]\nclass = 0", fillcolor="#e58139"] ;
209 -> 213 ;
214 [label="view_CC <= 0.5\ngini = 0.029\nsamples = 681\nvalue = [671, 10]\nclass = 0", fillcolor="#e5833c"] ;
202 -> 214 ;
215 [label="implant <= 0.5\ngini = 0.022\nsamples = 361\nvalue = [357, 4]\nclass = 0", fillcolor="#e5823b"] ;
214 -> 215 ;
216 [label="gini = 0.022\nsamples = 353\nvalue = [349, 4]\nclass = 0", fillcolor="#e5823b"] ;
215 -> 216 ;
217 [label="gini = 0.0\nsamples = 8\nvalue = [8, 0]\nclass = 0", fillcolor="#e58139"] ;
215 -> 217 ;
218 [label="implant <= 0.5\ngini = 0.037\nsamples = 320\nvalue = [314, 6]\nclass = 0", fillcolor="#e5833d"] ;
214 -> 218 ;
219 [label="gini = 0.038\nsamples = 313\nvalue = [307, 6]\nclass = 0", fillcolor="#e6833d"] ;
218 -> 219 ;
220 [label="gini = 0.0\nsamples = 7\nvalue = [7, 0]\nclass = 0", fillcolor="#e58139"] ;
218 -> 220 ;
221 [label="implant <= 0.5\ngini = 0.067\nsamples = 1854\nvalue = [1790, 64]\nclass = 0", fillcolor="#e68640"] ;
201 -> 221 ;
222 [label="view_CC <= 0.5\ngini = 0.067\nsamples = 1830\nvalue = [1766, 64]\nclass = 0", fillcolor="#e68640"] ;
221 -> 222 ;
223 [label="view_MLO <= 0.5\ngini = 0.065\nsamples = 947\nvalue = [915, 32]\nclass = 0", fillcolor="#e68540"] ;
222 -> 223 ;
224 [label="gini = 0.0\nsamples = 3\nvalue = [3, 0]\nclass = 0", fillcolor="#e58139"] ;
223 -> 224 ;
225 [label="age <= 63.5\ngini = 0.065\nsamples = 944\nvalue = [912, 32]\nclass = 0", fillcolor="#e68540"] ;
223 -> 225 ;
226 [label="gini = 0.069\nsamples = 279\nvalue = [269, 10]\nclass = 0", fillcolor="#e68640"] ;
225 -> 226 ;
227 [label="age <= 64.5\ngini = 0.064\nsamples = 665\nvalue = [643, 22]\nclass = 0", fillcolor="#e68540"] ;
225 -> 227 ;
228 [label="gini = 0.061\nsamples = 350\nvalue = [339, 11]\nclass = 0", fillcolor="#e6853f"] ;
227 -> 228 ;
229 [label="gini = 0.067\nsamples = 315\nvalue = [304, 11]\nclass = 0", fillcolor="#e68640"] ;
227 -> 229 ;
230 [label="age <= 64.5\ngini = 0.07\nsamples = 883\nvalue = [851, 32]\nclass = 0", fillcolor="#e68640"] ;
222 -> 230 ;
231 [label="age <= 63.5\ngini = 0.068\nsamples = 597\nvalue = [576, 21]\nclass = 0", fillcolor="#e68640"] ;
230 -> 231 ;
232 [label="gini = 0.067\nsamples = 288\nvalue = [278, 10]\nclass = 0", fillcolor="#e68640"] ;
231 -> 232 ;
233 [label="gini = 0.069\nsamples = 309\nvalue = [298, 11]\nclass = 0", fillcolor="#e68640"] ;
231 -> 233 ;
234 [label="gini = 0.074\nsamples = 286\nvalue = [275, 11]\nclass = 0", fillcolor="#e68641"] ;
230 -> 234 ;
235 [label="gini = 0.0\nsamples = 24\nvalue = [24, 0]\nclass = 0", fillcolor="#e58139"] ;
221 -> 235 ;
236 [label="age <= 66.5\ngini = 0.039\nsamples = 2189\nvalue = [2145, 44]\nclass = 0", fillcolor="#e6843d"] ;
200 -> 236 ;
237 [label="implant <= 0.5\ngini = 0.014\nsamples = 568\nvalue = [564, 4]\nclass = 0", fillcolor="#e5823a"] ;
236 -> 237 ;
238 [label="view_CC <= 0.5\ngini = 0.014\nsamples = 560\nvalue = [556, 4]\nclass = 0", fillcolor="#e5823a"] ;
237 -> 238 ;
239 [label="gini = 0.013\nsamples = 304\nvalue = [302, 2]\nclass = 0", fillcolor="#e5823a"] ;
238 -> 239 ;
240 [label="gini = 0.016\nsamples = 256\nvalue = [254, 2]\nclass = 0", fillcolor="#e5823b"] ;
238 -> 240 ;
241 [label="gini = 0.0\nsamples = 8\nvalue = [8, 0]\nclass = 0", fillcolor="#e58139"] ;
237 -> 241 ;
242 [label="age <= 68.5\ngini = 0.048\nsamples = 1621\nvalue = [1581, 40]\nclass = 0", fillcolor="#e6843e"] ;
236 -> 242 ;
243 [label="view_CC <= 0.5\ngini = 0.055\nsamples = 1125\nvalue = [1093, 32]\nclass = 0", fillcolor="#e6853f"] ;
242 -> 243 ;
244 [label="implant <= 0.5\ngini = 0.046\nsamples = 589\nvalue = [575, 14]\nclass = 0", fillcolor="#e6843e"] ;
243 -> 244 ;
245 [label="age <= 67.5\ngini = 0.048\nsamples = 573\nvalue = [559, 14]\nclass = 0", fillcolor="#e6843e"] ;
244 -> 245 ;
246 [label="view_ML <= 0.5\ngini = 0.05\nsamples = 311\nvalue = [303, 8]\nclass = 0", fillcolor="#e6843e"] ;
245 -> 246 ;
247 [label="gini = 0.05\nsamples = 310\nvalue = [302, 8]\nclass = 0", fillcolor="#e6843e"] ;
246 -> 247 ;
248 [label="gini = 0.0\nsamples = 1\nvalue = [1, 0]\nclass = 0", fillcolor="#e58139"] ;
246 -> 248 ;
249 [label="gini = 0.045\nsamples = 262\nvalue = [256, 6]\nclass = 0", fillcolor="#e6843e"] ;
245 -> 249 ;
250 [label="gini = 0.0\nsamples = 16\nvalue = [16, 0]\nclass = 0", fillcolor="#e58139"] ;
244 -> 250 ;
251 [label="implant <= 0.5\ngini = 0.065\nsamples = 536\nvalue = [518, 18]\nclass = 0", fillcolor="#e68540"] ;
243 -> 251 ;
252 [label="age <= 67.5\ngini = 0.067\nsamples = 520\nvalue = [502, 18]\nclass = 0", fillcolor="#e68640"] ;
251 -> 252 ;
253 [label="gini = 0.073\nsamples = 292\nvalue = [281, 11]\nclass = 0", fillcolor="#e68641"] ;
252 -> 253 ;
254 [label="gini = 0.06\nsamples = 228\nvalue = [221, 7]\nclass = 0", fillcolor="#e6853f"] ;
252 -> 254 ;
255 [label="gini = 0.0\nsamples = 16\nvalue = [16, 0]\nclass = 0", fillcolor="#e58139"] ;
251 -> 255 ;
256 [label="implant <= 0.5\ngini = 0.032\nsamples = 496\nvalue = [488, 8]\nclass = 0", fillcolor="#e5833c"] ;
242 -> 256 ;
257 [label="view_CC <= 0.5\ngini = 0.032\nsamples = 489\nvalue = [481, 8]\nclass = 0", fillcolor="#e5833c"] ;
256 -> 257 ;
258 [label="gini = 0.031\nsamples = 250\nvalue = [246, 4]\nclass = 0", fillcolor="#e5833c"] ;
257 -> 258 ;
259 [label="gini = 0.033\nsamples = 239\nvalue = [235, 4]\nclass = 0", fillcolor="#e5833c"] ;
257 -> 259 ;
260 [label="gini = 0.0\nsamples = 7\nvalue = [7, 0]\nclass = 0", fillcolor="#e58139"] ;
256 -> 260 ;
261 [label="implant <= 0.5\ngini = 0.042\nsamples = 6102\nvalue = [5972, 130]\nclass = 0", fillcolor="#e6843d"] ;
199 -> 261 ;
262 [label="age <= 64.5\ngini = 0.041\nsamples = 5984\nvalue = [5860, 124]\nclass = 0", fillcolor="#e6843d"] ;
261 -> 262 ;
263 [label="age <= 62.5\ngini = 0.036\nsamples = 3150\nvalue = [3092, 58]\nclass = 0", fillcolor="#e5833d"] ;
262 -> 263 ;
264 [label="age <= 61.5\ngini = 0.041\nsamples = 1892\nvalue = [1852, 40]\nclass = 0", fillcolor="#e6843d"] ;
263 -> 264 ;
265 [label="age <= 60.5\ngini = 0.044\nsamples = 1242\nvalue = [1214, 28]\nclass = 0", fillcolor="#e6843e"] ;
264 -> 265 ;
266 [label="view_CC <= 0.5\ngini = 0.038\nsamples = 621\nvalue = [609, 12]\nclass = 0", fillcolor="#e6833d"] ;
265 -> 266 ;
267 [label="gini = 0.043\nsamples = 316\nvalue = [309, 7]\nclass = 0", fillcolor="#e6843d"] ;
266 -> 267 ;
268 [label="gini = 0.032\nsamples = 305\nvalue = [300, 5]\nclass = 0", fillcolor="#e5833c"] ;
266 -> 268 ;
269 [label="view_MLO <= 0.5\ngini = 0.05\nsamples = 621\nvalue = [605, 16]\nclass = 0", fillcolor="#e6843e"] ;
265 -> 269 ;
270 [label="gini = 0.05\nsamples = 309\nvalue = [301, 8]\nclass = 0", fillcolor="#e6843e"] ;
269 -> 270 ;
271 [label="gini = 0.05\nsamples = 312\nvalue = [304, 8]\nclass = 0", fillcolor="#e6843e"] ;
269 -> 271 ;
272 [label="view_CC <= 0.5\ngini = 0.036\nsamples = 650\nvalue = [638, 12]\nclass = 0", fillcolor="#e5833d"] ;
264 -> 272 ;
273 [label="view_MLO <= 0.5\ngini = 0.035\nsamples = 335\nvalue = [329, 6]\nclass = 0", fillcolor="#e5833d"] ;
272 -> 273 ;
274 [label="gini = 0.0\nsamples = 1\nvalue = [1, 0]\nclass = 0", fillcolor="#e58139"] ;
273 -> 274 ;
275 [label="gini = 0.035\nsamples = 334\nvalue = [328, 6]\nclass = 0", fillcolor="#e5833d"] ;
273 -> 275 ;
276 [label="gini = 0.037\nsamples = 315\nvalue = [309, 6]\nclass = 0", fillcolor="#e6833d"] ;
272 -> 276 ;
277 [label="view_MLO <= 0.5\ngini = 0.028\nsamples = 1258\nvalue = [1240, 18]\nclass = 0", fillcolor="#e5833c"] ;
263 -> 277 ;
278 [label="age <= 63.5\ngini = 0.034\nsamples = 635\nvalue = [624, 11]\nclass = 0", fillcolor="#e5833c"] ;
277 -> 278 ;
279 [label="gini = 0.045\nsamples = 304\nvalue = [297, 7]\nclass = 0", fillcolor="#e6843e"] ;
278 -> 279 ;
280 [label="gini = 0.024\nsamples = 331\nvalue = [327, 4]\nclass = 0", fillcolor="#e5833b"] ;
278 -> 280 ;
281 [label="age <= 63.5\ngini = 0.022\nsamples = 623\nvalue = [616, 7]\nclass = 0", fillcolor="#e5823b"] ;
277 -> 281 ;
282 [label="gini = 0.014\nsamples = 280\nvalue = [278, 2]\nclass = 0", fillcolor="#e5823a"] ;
281 -> 282 ;
283 [label="gini = 0.029\nsamples = 343\nvalue = [338, 5]\nclass = 0", fillcolor="#e5833c"] ;
281 -> 283 ;
284 [label="view_CC <= 0.5\ngini = 0.045\nsamples = 2834\nvalue = [2768, 66]\nclass = 0", fillcolor="#e6843e"] ;
262 -> 284 ;
285 [label="age <= 66.5\ngini = 0.038\nsamples = 1428\nvalue = [1400, 28]\nclass = 0", fillcolor="#e6843d"] ;
284 -> 285 ;
286 [label="age <= 65.5\ngini = 0.035\nsamples = 613\nvalue = [602, 11]\nclass = 0", fillcolor="#e5833d"] ;
285 -> 286 ;
287 [label="gini = 0.037\nsamples = 316\nvalue = [310, 6]\nclass = 0", fillcolor="#e6833d"] ;
286 -> 287 ;
288 [label="view_MLO <= 0.5\ngini = 0.033\nsamples = 297\nvalue = [292, 5]\nclass = 0", fillcolor="#e5833c"] ;
286 -> 288 ;
289 [label="gini = 0.0\nsamples = 1\nvalue = [1, 0]\nclass = 0", fillcolor="#e58139"] ;
288 -> 289 ;
290 [label="gini = 0.033\nsamples = 296\nvalue = [291, 5]\nclass = 0", fillcolor="#e5833c"] ;
288 -> 290 ;
291 [label="age <= 68.5\ngini = 0.041\nsamples = 815\nvalue = [798, 17]\nclass = 0", fillcolor="#e6843d"] ;
285 -> 291 ;
292 [label="view_MLO <= 0.5\ngini = 0.044\nsamples = 579\nvalue = [566, 13]\nclass = 0", fillcolor="#e6843e"] ;
291 -> 292 ;
293 [label="gini = 0.0\nsamples = 2\nvalue = [2, 0]\nclass = 0", fillcolor="#e58139"] ;
292 -> 293 ;
294 [label="age <= 67.5\ngini = 0.044\nsamples = 577\nvalue = [564, 13]\nclass = 0", fillcolor="#e6843e"] ;
292 -> 294 ;
295 [label="gini = 0.045\nsamples = 307\nvalue = [300, 7]\nclass = 0", fillcolor="#e6843e"] ;
294 -> 295 ;
296 [label="gini = 0.043\nsamples = 270\nvalue = [264, 6]\nclass = 0", fillcolor="#e6843d"] ;
294 -> 296 ;
297 [label="view_LM <= 0.5\ngini = 0.033\nsamples = 236\nvalue = [232, 4]\nclass = 0", fillcolor="#e5833c"] ;
291 -> 297 ;
298 [label="gini = 0.033\nsamples = 235\nvalue = [231, 4]\nclass = 0", fillcolor="#e5833c"] ;
297 -> 298 ;
299 [label="gini = 0.0\nsamples = 1\nvalue = [1, 0]\nclass = 0", fillcolor="#e58139"] ;
297 -> 299 ;
300 [label="age <= 68.5\ngini = 0.053\nsamples = 1406\nvalue = [1368, 38]\nclass = 0", fillcolor="#e6843e"] ;
284 -> 300 ;
301 [label="age <= 67.5\ngini = 0.057\nsamples = 1165\nvalue = [1131, 34]\nclass = 0", fillcolor="#e6853f"] ;
300 -> 301 ;
302 [label="age <= 65.5\ngini = 0.053\nsamples = 909\nvalue = [884, 25]\nclass = 0", fillcolor="#e6853f"] ;
301 -> 302 ;
303 [label="gini = 0.057\nsamples = 305\nvalue = [296, 9]\nclass = 0", fillcolor="#e6853f"] ;
302 -> 303 ;
304 [label="age <= 66.5\ngini = 0.052\nsamples = 604\nvalue = [588, 16]\nclass = 0", fillcolor="#e6843e"] ;
302 -> 304 ;
305 [label="gini = 0.053\nsamples = 294\nvalue = [286, 8]\nclass = 0", fillcolor="#e6853f"] ;
304 -> 305 ;
306 [label="gini = 0.05\nsamples = 310\nvalue = [302, 8]\nclass = 0", fillcolor="#e6843e"] ;
304 -> 306 ;
307 [label="gini = 0.068\nsamples = 256\nvalue = [247, 9]\nclass = 0", fillcolor="#e68640"] ;
301 -> 307 ;
308 [label="gini = 0.033\nsamples = 241\nvalue = [237, 4]\nclass = 0", fillcolor="#e5833c"] ;
300 -> 308 ;
309 [label="age <= 60.5\ngini = 0.097\nsamples = 118\nvalue = [112, 6]\nclass = 0", fillcolor="#e68844"] ;
261 -> 309 ;
310 [label="view_MLO <= 0.5\ngini = 0.291\nsamples = 17\nvalue = [14, 3]\nclass = 0", fillcolor="#eb9c63"] ;
309 -> 310 ;
311 [label="gini = 0.346\nsamples = 9\nvalue = [7, 2]\nclass = 0", fillcolor="#eca572"] ;
310 -> 311 ;
312 [label="gini = 0.219\nsamples = 8\nvalue = [7, 1]\nclass = 0", fillcolor="#e99355"] ;
310 -> 312 ;
313 [label="age <= 66.5\ngini = 0.058\nsamples = 101\nvalue = [98, 3]\nclass = 0", fillcolor="#e6853f"] ;
309 -> 313 ;
314 [label="gini = 0.0\nsamples = 56\nvalue = [56, 0]\nclass = 0", fillcolor="#e58139"] ;
313 -> 314 ;
315 [label="age <= 67.5\ngini = 0.124\nsamples = 45\nvalue = [42, 3]\nclass = 0", fillcolor="#e78a47"] ;
313 -> 315 ;
316 [label="view_CC <= 0.5\ngini = 0.32\nsamples = 15\nvalue = [12, 3]\nclass = 0", fillcolor="#eca06a"] ;
315 -> 316 ;
317 [label="gini = 0.0\nsamples = 6\nvalue = [6, 0]\nclass = 0", fillcolor="#e58139"] ;
316 -> 317 ;
318 [label="gini = 0.444\nsamples = 9\nvalue = [6, 3]\nclass = 0", fillcolor="#f2c09c"] ;
316 -> 318 ;
319 [label="gini = 0.0\nsamples = 30\nvalue = [30, 0]\nclass = 0", fillcolor="#e58139"] ;
315 -> 319 ;
320 [label="laterality_R <= 0.5\ngini = 0.09\nsamples = 5008\nvalue = [4771, 237]\nclass = 0", fillcolor="#e68743"] ;
0 -> 320 [labeldistance=2.5, labelangle=-45, headlabel="False"] ;
321 [label="age <= 71.5\ngini = 0.108\nsamples = 2519\nvalue = [2375, 144]\nclass = 0", fillcolor="#e78945"] ;
320 -> 321 ;
322 [label="implant <= 0.5\ngini = 0.079\nsamples = 729\nvalue = [699, 30]\nclass = 0", fillcolor="#e68641"] ;
321 -> 322 ;
323 [label="age <= 70.5\ngini = 0.082\nsamples = 701\nvalue = [671, 30]\nclass = 0", fillcolor="#e68742"] ;
322 -> 323 ;
324 [label="view_MLO <= 0.5\ngini = 0.086\nsamples = 354\nvalue = [338, 16]\nclass = 0", fillcolor="#e68742"] ;
323 -> 324 ;
325 [label="gini = 0.091\nsamples = 167\nvalue = [159, 8]\nclass = 0", fillcolor="#e68743"] ;
324 -> 325 ;
326 [label="gini = 0.082\nsamples = 187\nvalue = [179, 8]\nclass = 0", fillcolor="#e68742"] ;
324 -> 326 ;
327 [label="view_CC <= 0.5\ngini = 0.077\nsamples = 347\nvalue = [333, 14]\nclass = 0", fillcolor="#e68641"] ;
323 -> 327 ;
328 [label="view_MLO <= 0.5\ngini = 0.074\nsamples = 183\nvalue = [176, 7]\nclass = 0", fillcolor="#e68641"] ;
327 -> 328 ;
329 [label="gini = 0.0\nsamples = 1\nvalue = [1, 0]\nclass = 0", fillcolor="#e58139"] ;
328 -> 329 ;
330 [label="gini = 0.074\nsamples = 182\nvalue = [175, 7]\nclass = 0", fillcolor="#e68641"] ;
328 -> 330 ;
331 [label="gini = 0.082\nsamples = 164\nvalue = [157, 7]\nclass = 0", fillcolor="#e68742"] ;
327 -> 331 ;
332 [label="gini = 0.0\nsamples = 28\nvalue = [28, 0]\nclass = 0", fillcolor="#e58139"] ;
322 -> 332 ;
333 [label="age <= 83.5\ngini = 0.119\nsamples = 1790\nvalue = [1676, 114]\nclass = 0", fillcolor="#e78a46"] ;
321 -> 333 ;
334 [label="age <= 72.5\ngini = 0.125\nsamples = 1665\nvalue = [1553, 112]\nclass = 0", fillcolor="#e78a47"] ;
333 -> 334 ;
335 [label="implant <= 0.5\ngini = 0.151\nsamples = 315\nvalue = [289, 26]\nclass = 0", fillcolor="#e78c4b"] ;
334 -> 335 ;
336 [label="view_MLO <= 0.5\ngini = 0.142\nsamples = 313\nvalue = [289, 24]\nclass = 0", fillcolor="#e78b49"] ;
335 -> 336 ;
337 [label="gini = 0.138\nsamples = 147\nvalue = [136, 11]\nclass = 0", fillcolor="#e78b49"] ;
336 -> 337 ;
338 [label="gini = 0.144\nsamples = 166\nvalue = [153, 13]\nclass = 0", fillcolor="#e78c4a"] ;
336 -> 338 ;
339 [label="gini = 0.0\nsamples = 2\nvalue = [0, 2]\nclass = 1", fillcolor="#399de5"] ;
335 -> 339 ;
340 [label="implant <= 0.5\ngini = 0.119\nsamples = 1350\nvalue = [1264, 86]\nclass = 0", fillcolor="#e78a46"] ;
334 -> 340 ;
341 [label="age <= 74.5\ngini = 0.121\nsamples = 1330\nvalue = [1244, 86]\nclass = 0", fillcolor="#e78a47"] ;
340 -> 341 ;
342 [label="age <= 73.5\ngini = 0.105\nsamples = 484\nvalue = [457, 27]\nclass = 0", fillcolor="#e78845"] ;
341 -> 342 ;
343 [label="view_MLO <= 0.5\ngini = 0.103\nsamples = 294\nvalue = [278, 16]\nclass = 0", fillcolor="#e68844"] ;
342 -> 343 ;
344 [label="gini = 0.095\nsamples = 140\nvalue = [133, 7]\nclass = 0", fillcolor="#e68843"] ;
343 -> 344 ;
345 [label="gini = 0.11\nsamples = 154\nvalue = [145, 9]\nclass = 0", fillcolor="#e78945"] ;
343 -> 345 ;
346 [label="view_MLO <= 0.5\ngini = 0.109\nsamples = 190\nvalue = [179, 11]\nclass = 0", fillcolor="#e78945"] ;
342 -> 346 ;
347 [label="gini = 0.13\nsamples = 86\nvalue = [80, 6]\nclass = 0", fillcolor="#e78a48"] ;
346 -> 347 ;
348 [label="gini = 0.092\nsamples = 104\nvalue = [99, 5]\nclass = 0", fillcolor="#e68743"] ;
346 -> 348 ;
349 [label="age <= 76.5\ngini = 0.13\nsamples = 846\nvalue = [787, 59]\nclass = 0", fillcolor="#e78a48"] ;
341 -> 349 ;
350 [label="age <= 75.5\ngini = 0.169\nsamples = 279\nvalue = [253, 26]\nclass = 0", fillcolor="#e88e4d"] ;
349 -> 350 ;
351 [label="view_MLO <= 0.5\ngini = 0.124\nsamples = 165\nvalue = [154, 11]\nclass = 0", fillcolor="#e78a47"] ;
350 -> 351 ;
352 [label="gini = 0.12\nsamples = 78\nvalue = [73, 5]\nclass = 0", fillcolor="#e78a47"] ;
351 -> 352 ;
353 [label="gini = 0.128\nsamples = 87\nvalue = [81, 6]\nclass = 0", fillcolor="#e78a48"] ;
351 -> 353 ;
354 [label="view_CC <= 0.5\ngini = 0.229\nsamples = 114\nvalue = [99, 15]\nclass = 0", fillcolor="#e99457"] ;
350 -> 354 ;
355 [label="gini = 0.198\nsamples = 54\nvalue = [48, 6]\nclass = 0", fillcolor="#e89152"] ;
354 -> 355 ;
356 [label="gini = 0.255\nsamples = 60\nvalue = [51, 9]\nclass = 0", fillcolor="#ea975c"] ;
354 -> 356 ;
357 [label="age <= 79.5\ngini = 0.11\nsamples = 567\nvalue = [534, 33]\nclass = 0", fillcolor="#e78945"] ;
349 -> 357 ;
358 [label="age <= 77.5\ngini = 0.083\nsamples = 321\nvalue = [307, 14]\nclass = 0", fillcolor="#e68742"] ;
357 -> 358 ;
359 [label="view_CC <= 0.5\ngini = 0.112\nsamples = 118\nvalue = [111, 7]\nclass = 0", fillcolor="#e78945"] ;
358 -> 359 ;
360 [label="gini = 0.121\nsamples = 62\nvalue = [58, 4]\nclass = 0", fillcolor="#e78a47"] ;
359 -> 360 ;
361 [label="gini = 0.101\nsamples = 56\nvalue = [53, 3]\nclass = 0", fillcolor="#e68844"] ;
359 -> 361 ;
362 [label="age <= 78.5\ngini = 0.067\nsamples = 203\nvalue = [196, 7]\nclass = 0", fillcolor="#e68640"] ;
358 -> 362 ;
363 [label="view_CC <= 0.5\ngini = 0.036\nsamples = 110\nvalue = [108, 2]\nclass = 0", fillcolor="#e5833d"] ;
362 -> 363 ;
364 [label="view_MLO <= 0.5\ngini = 0.031\nsamples = 64\nvalue = [63, 1]\nclass = 0", fillcolor="#e5833c"] ;
363 -> 364 ;
365 [label="gini = 0.0\nsamples = 1\nvalue = [1, 0]\nclass = 0", fillcolor="#e58139"] ;
364 -> 365 ;
366 [label="gini = 0.031\nsamples = 63\nvalue = [62, 1]\nclass = 0", fillcolor="#e5833c"] ;
364 -> 366 ;
367 [label="gini = 0.043\nsamples = 46\nvalue = [45, 1]\nclass = 0", fillcolor="#e6843d"] ;
363 -> 367 ;
368 [label="view_CC <= 0.5\ngini = 0.102\nsamples = 93\nvalue = [88, 5]\nclass = 0", fillcolor="#e68844"] ;
362 -> 368 ;
369 [label="gini = 0.081\nsamples = 47\nvalue = [45, 2]\nclass = 0", fillcolor="#e68742"] ;
368 -> 369 ;
370 [label="gini = 0.122\nsamples = 46\nvalue = [43, 3]\nclass = 0", fillcolor="#e78a47"] ;
368 -> 370 ;
371 [label="age <= 80.5\ngini = 0.143\nsamples = 246\nvalue = [227, 19]\nclass = 0", fillcolor="#e78c4a"] ;
357 -> 371 ;
372 [label="view_MLO <= 0.5\ngini = 0.191\nsamples = 75\nvalue = [67, 8]\nclass = 0", fillcolor="#e89051"] ;
371 -> 372 ;
373 [label="gini = 0.229\nsamples = 38\nvalue = [33, 5]\nclass = 0", fillcolor="#e99457"] ;
372 -> 373 ;
374 [label="gini = 0.149\nsamples = 37\nvalue = [34, 3]\nclass = 0", fillcolor="#e78c4a"] ;
372 -> 374 ;
375 [label="age <= 81.5\ngini = 0.12\nsamples = 171\nvalue = [160, 11]\nclass = 0", fillcolor="#e78a47"] ;
371 -> 375 ;
376 [label="view_CC <= 0.5\ngini = 0.062\nsamples = 62\nvalue = [60, 2]\nclass = 0", fillcolor="#e68540"] ;
375 -> 376 ;
377 [label="gini = 0.061\nsamples = 32\nvalue = [31, 1]\nclass = 0", fillcolor="#e6853f"] ;
376 -> 377 ;
378 [label="gini = 0.064\nsamples = 30\nvalue = [29, 1]\nclass = 0", fillcolor="#e68540"] ;
376 -> 378 ;
379 [label="view_CC <= 0.5\ngini = 0.152\nsamples = 109\nvalue = [100, 9]\nclass = 0", fillcolor="#e78c4b"] ;
375 -> 379 ;
380 [label="age <= 82.5\ngini = 0.126\nsamples = 59\nvalue = [55, 4]\nclass = 0", fillcolor="#e78a47"] ;
379 -> 380 ;
381 [label="gini = 0.111\nsamples = 34\nvalue = [32, 2]\nclass = 0", fillcolor="#e78945"] ;
380 -> 381 ;
382 [label="view_MLO <= 0.5\ngini = 0.147\nsamples = 25\nvalue = [23, 2]\nclass = 0", fillcolor="#e78c4a"] ;
380 -> 382 ;
383 [label="gini = 0.0\nsamples = 1\nvalue = [1, 0]\nclass = 0", fillcolor="#e58139"] ;
382 -> 383 ;
384 [label="gini = 0.153\nsamples = 24\nvalue = [22, 2]\nclass = 0", fillcolor="#e78c4b"] ;
382 -> 384 ;
385 [label="age <= 82.5\ngini = 0.18\nsamples = 50\nvalue = [45, 5]\nclass = 0", fillcolor="#e88f4f"] ;
379 -> 385 ;
386 [label="gini = 0.219\nsamples = 32\nvalue = [28, 4]\nclass = 0", fillcolor="#e99355"] ;
385 -> 386 ;
387 [label="gini = 0.105\nsamples = 18\nvalue = [17, 1]\nclass = 0", fillcolor="#e78845"] ;
385 -> 387 ;
388 [label="gini = 0.0\nsamples = 20\nvalue = [20, 0]\nclass = 0", fillcolor="#e58139"] ;
340 -> 388 ;
389 [label="view_CC <= 0.5\ngini = 0.031\nsamples = 125\nvalue = [123, 2]\nclass = 0", fillcolor="#e5833c"] ;
333 -> 389 ;
390 [label="gini = 0.0\nsamples = 65\nvalue = [65, 0]\nclass = 0", fillcolor="#e58139"] ;
389 -> 390 ;
391 [label="age <= 86.5\ngini = 0.064\nsamples = 60\nvalue = [58, 2]\nclass = 0", fillcolor="#e68540"] ;
389 -> 391 ;
392 [label="age <= 85.5\ngini = 0.114\nsamples = 33\nvalue = [31, 2]\nclass = 0", fillcolor="#e78946"] ;
391 -> 392 ;
393 [label="gini = 0.0\nsamples = 22\nvalue = [22, 0]\nclass = 0", fillcolor="#e58139"] ;
392 -> 393 ;
394 [label="gini = 0.298\nsamples = 11\nvalue = [9, 2]\nclass = 0", fillcolor="#eb9d65"] ;
392 -> 394 ;
395 [label="gini = 0.0\nsamples = 27\nvalue = [27, 0]\nclass = 0", fillcolor="#e58139"] ;
391 -> 395 ;
396 [label="age <= 75.5\ngini = 0.072\nsamples = 2489\nvalue = [2396, 93]\nclass = 0", fillcolor="#e68641"] ;
320 -> 396 ;
397 [label="age <= 73.5\ngini = 0.08\nsamples = 1691\nvalue = [1620, 71]\nclass = 0", fillcolor="#e68742"] ;
396 -> 397 ;
398 [label="view_CC <= 0.5\ngini = 0.066\nsamples = 1320\nvalue = [1275, 45]\nclass = 0", fillcolor="#e68540"] ;
397 -> 398 ;
399 [label="age <= 70.5\ngini = 0.052\nsamples = 671\nvalue = [653, 18]\nclass = 0", fillcolor="#e6843e"] ;
398 -> 399 ;
400 [label="implant <= 0.5\ngini = 0.024\nsamples = 162\nvalue = [160, 2]\nclass = 0", fillcolor="#e5833b"] ;
399 -> 400 ;
401 [label="gini = 0.025\nsamples = 160\nvalue = [158, 2]\nclass = 0", fillcolor="#e5833c"] ;
400 -> 401 ;
402 [label="gini = 0.0\nsamples = 2\nvalue = [2, 0]\nclass = 0", fillcolor="#e58139"] ;
400 -> 402 ;
403 [label="implant <= 0.5\ngini = 0.061\nsamples = 509\nvalue = [493, 16]\nclass = 0", fillcolor="#e6853f"] ;
399 -> 403 ;
404 [label="view_MLO <= 0.5\ngini = 0.062\nsamples = 502\nvalue = [486, 16]\nclass = 0", fillcolor="#e68540"] ;
403 -> 404 ;
405 [label="gini = 0.0\nsamples = 2\nvalue = [2, 0]\nclass = 0", fillcolor="#e58139"] ;
404 -> 405 ;
406 [label="age <= 71.5\ngini = 0.062\nsamples = 500\nvalue = [484, 16]\nclass = 0", fillcolor="#e68540"] ;
404 -> 406 ;
407 [label="gini = 0.066\nsamples = 205\nvalue = [198, 7]\nclass = 0", fillcolor="#e68540"] ;
406 -> 407 ;
408 [label="age <= 72.5\ngini = 0.059\nsamples = 295\nvalue = [286, 9]\nclass = 0", fillcolor="#e6853f"] ;
406 -> 408 ;
409 [label="gini = 0.054\nsamples = 144\nvalue = [140, 4]\nclass = 0", fillcolor="#e6853f"] ;
408 -> 409 ;
410 [label="gini = 0.064\nsamples = 151\nvalue = [146, 5]\nclass = 0", fillcolor="#e68540"] ;
408 -> 410 ;
411 [label="gini = 0.0\nsamples = 7\nvalue = [7, 0]\nclass = 0", fillcolor="#e58139"] ;
403 -> 411 ;
412 [label="age <= 70.5\ngini = 0.08\nsamples = 649\nvalue = [622, 27]\nclass = 0", fillcolor="#e68642"] ;
398 -> 412 ;
413 [label="implant <= 0.5\ngini = 0.111\nsamples = 170\nvalue = [160, 10]\nclass = 0", fillcolor="#e78945"] ;
412 -> 413 ;
414 [label="gini = 0.115\nsamples = 164\nvalue = [154, 10]\nclass = 0", fillcolor="#e78946"] ;
413 -> 414 ;
415 [label="gini = 0.0\nsamples = 6\nvalue = [6, 0]\nclass = 0", fillcolor="#e58139"] ;
413 -> 415 ;
416 [label="implant <= 0.5\ngini = 0.068\nsamples = 479\nvalue = [462, 17]\nclass = 0", fillcolor="#e68640"] ;
412 -> 416 ;
417 [label="age <= 71.5\ngini = 0.07\nsamples = 468\nvalue = [451, 17]\nclass = 0", fillcolor="#e68640"] ;
416 -> 417 ;
418 [label="gini = 0.063\nsamples = 183\nvalue = [177, 6]\nclass = 0", fillcolor="#e68540"] ;
417 -> 418 ;
419 [label="age <= 72.5\ngini = 0.074\nsamples = 285\nvalue = [274, 11]\nclass = 0", fillcolor="#e68641"] ;
417 -> 419 ;
420 [label="gini = 0.079\nsamples = 146\nvalue = [140, 6]\nclass = 0", fillcolor="#e68641"] ;
419 -> 420 ;
421 [label="gini = 0.069\nsamples = 139\nvalue = [134, 5]\nclass = 0", fillcolor="#e68640"] ;
419 -> 421 ;
422 [label="gini = 0.0\nsamples = 11\nvalue = [11, 0]\nclass = 0", fillcolor="#e58139"] ;
416 -> 422 ;
423 [label="age <= 74.5\ngini = 0.13\nsamples = 371\nvalue = [345, 26]\nclass = 0", fillcolor="#e78a48"] ;
397 -> 423 ;
424 [label="view_MLO <= 0.5\ngini = 0.152\nsamples = 205\nvalue = [188, 17]\nclass = 0", fillcolor="#e78c4b"] ;
423 -> 424 ;
425 [label="view_CC <= 0.5\ngini = 0.17\nsamples = 96\nvalue = [87, 9]\nclass = 0", fillcolor="#e88e4d"] ;
424 -> 425 ;
426 [label="gini = 0.0\nsamples = 1\nvalue = [0, 1]\nclass = 1", fillcolor="#399de5"] ;
425 -> 426 ;
427 [label="implant <= 0.5\ngini = 0.154\nsamples = 95\nvalue = [87, 8]\nclass = 0", fillcolor="#e78d4b"] ;
425 -> 427 ;
428 [label="gini = 0.157\nsamples = 93\nvalue = [85, 8]\nclass = 0", fillcolor="#e78d4c"] ;
427 -> 428 ;
429 [label="gini = 0.0\nsamples = 2\nvalue = [2, 0]\nclass = 0", fillcolor="#e58139"] ;
427 -> 429 ;
430 [label="implant <= 0.5\ngini = 0.136\nsamples = 109\nvalue = [101, 8]\nclass = 0", fillcolor="#e78b49"] ;
424 -> 430 ;
431 [label="gini = 0.137\nsamples = 108\nvalue = [100, 8]\nclass = 0", fillcolor="#e78b49"] ;
430 -> 431 ;
432 [label="gini = 0.0\nsamples = 1\nvalue = [1, 0]\nclass = 0", fillcolor="#e58139"] ;
430 -> 432 ;
433 [label="view_MLO <= 0.5\ngini = 0.103\nsamples = 166\nvalue = [157, 9]\nclass = 0", fillcolor="#e68844"] ;
423 -> 433 ;
434 [label="gini = 0.115\nsamples = 82\nvalue = [77, 5]\nclass = 0", fillcolor="#e78946"] ;
433 -> 434 ;
435 [label="gini = 0.091\nsamples = 84\nvalue = [80, 4]\nclass = 0", fillcolor="#e68743"] ;
433 -> 435 ;
436 [label="age <= 78.5\ngini = 0.054\nsamples = 798\nvalue = [776, 22]\nclass = 0", fillcolor="#e6853f"] ;
396 -> 436 ;
437 [label="view_MLO <= 0.5\ngini = 0.006\nsamples = 351\nvalue = [350, 1]\nclass = 0", fillcolor="#e5813a"] ;
436 -> 437 ;
438 [label="gini = 0.0\nsamples = 173\nvalue = [173, 0]\nclass = 0", fillcolor="#e58139"] ;
437 -> 438 ;
439 [label="age <= 76.5\ngini = 0.011\nsamples = 178\nvalue = [177, 1]\nclass = 0", fillcolor="#e5823a"] ;
437 -> 439 ;
440 [label="gini = 0.0\nsamples = 65\nvalue = [65, 0]\nclass = 0", fillcolor="#e58139"] ;
439 -> 440 ;
441 [label="age <= 77.5\ngini = 0.018\nsamples = 113\nvalue = [112, 1]\nclass = 0", fillcolor="#e5823b"] ;
439 -> 441 ;
442 [label="gini = 0.036\nsamples = 54\nvalue = [53, 1]\nclass = 0", fillcolor="#e5833d"] ;
441 -> 442 ;
443 [label="gini = 0.0\nsamples = 59\nvalue = [59, 0]\nclass = 0", fillcolor="#e58139"] ;
441 -> 443 ;
444 [label="age <= 81.5\ngini = 0.09\nsamples = 447\nvalue = [426, 21]\nclass = 0", fillcolor="#e68743"] ;
436 -> 444 ;
445 [label="age <= 79.5\ngini = 0.133\nsamples = 224\nvalue = [208, 16]\nclass = 0", fillcolor="#e78b48"] ;
444 -> 445 ;
446 [label="view_MLO <= 0.5\ngini = 0.164\nsamples = 89\nvalue = [81, 8]\nclass = 0", fillcolor="#e88d4d"] ;
445 -> 446 ;
447 [label="gini = 0.145\nsamples = 38\nvalue = [35, 3]\nclass = 0", fillcolor="#e78c4a"] ;
446 -> 447 ;
448 [label="gini = 0.177\nsamples = 51\nvalue = [46, 5]\nclass = 0", fillcolor="#e88f4f"] ;
446 -> 448 ;
449 [label="age <= 80.5\ngini = 0.111\nsamples = 135\nvalue = [127, 8]\nclass = 0", fillcolor="#e78945"] ;
445 -> 449 ;
450 [label="view_CC <= 0.5\ngini = 0.074\nsamples = 78\nvalue = [75, 3]\nclass = 0", fillcolor="#e68641"] ;
449 -> 450 ;
451 [label="gini = 0.048\nsamples = 41\nvalue = [40, 1]\nclass = 0", fillcolor="#e6843e"] ;
450 -> 451 ;
452 [label="gini = 0.102\nsamples = 37\nvalue = [35, 2]\nclass = 0", fillcolor="#e68844"] ;
450 -> 452 ;
453 [label="view_CC <= 0.5\ngini = 0.16\nsamples = 57\nvalue = [52, 5]\nclass = 0", fillcolor="#e88d4c"] ;
449 -> 453 ;
454 [label="view_MLO <= 0.5\ngini = 0.121\nsamples = 31\nvalue = [29, 2]\nclass = 0", fillcolor="#e78a47"] ;
453 -> 454 ;
455 [label="gini = 0.0\nsamples = 1\nvalue = [1, 0]\nclass = 0", fillcolor="#e58139"] ;
454 -> 455 ;
456 [label="gini = 0.124\nsamples = 30\nvalue = [28, 2]\nclass = 0", fillcolor="#e78a47"] ;
454 -> 456 ;
457 [label="gini = 0.204\nsamples = 26\nvalue = [23, 3]\nclass = 0", fillcolor="#e89153"] ;
453 -> 457 ;
458 [label="age <= 84.5\ngini = 0.044\nsamples = 223\nvalue = [218, 5]\nclass = 0", fillcolor="#e6843e"] ;
444 -> 458 ;
459 [label="age <= 83.5\ngini = 0.059\nsamples = 131\nvalue = [127, 4]\nclass = 0", fillcolor="#e6853f"] ;
458 -> 459 ;
460 [label="age <= 82.5\ngini = 0.036\nsamples = 108\nvalue = [106, 2]\nclass = 0", fillcolor="#e5833d"] ;
459 -> 460 ;
461 [label="view_MLO <= 0.5\ngini = 0.057\nsamples = 68\nvalue = [66, 2]\nclass = 0", fillcolor="#e6853f"] ;
460 -> 461 ;
462 [label="gini = 0.064\nsamples = 30\nvalue = [29, 1]\nclass = 0", fillcolor="#e68540"] ;
461 -> 462 ;
463 [label="gini = 0.051\nsamples = 38\nvalue = [37, 1]\nclass = 0", fillcolor="#e6843e"] ;
461 -> 463 ;
464 [label="gini = 0.0\nsamples = 40\nvalue = [40, 0]\nclass = 0", fillcolor="#e58139"] ;
460 -> 464 ;
465 [label="view_MLO <= 0.5\ngini = 0.159\nsamples = 23\nvalue = [21, 2]\nclass = 0", fillcolor="#e78d4c"] ;
459 -> 465 ;
466 [label="gini = 0.18\nsamples = 10\nvalue = [9, 1]\nclass = 0", fillcolor="#e88f4f"] ;
465 -> 466 ;
467 [label="gini = 0.142\nsamples = 13\nvalue = [12, 1]\nclass = 0", fillcolor="#e78c49"] ;
465 -> 467 ;
468 [label="age <= 88.5\ngini = 0.022\nsamples = 92\nvalue = [91, 1]\nclass = 0", fillcolor="#e5823b"] ;
458 -> 468 ;
469 [label="gini = 0.0\nsamples = 70\nvalue = [70, 0]\nclass = 0", fillcolor="#e58139"] ;
468 -> 469 ;
470 [label="view_CC <= 0.5\ngini = 0.087\nsamples = 22\nvalue = [21, 1]\nclass = 0", fillcolor="#e68742"] ;
468 -> 470 ;
471 [label="gini = 0.0\nsamples = 13\nvalue = [13, 0]\nclass = 0", fillcolor="#e58139"] ;
470 -> 471 ;
472 [label="gini = 0.198\nsamples = 9\nvalue = [8, 1]\nclass = 0", fillcolor="#e89152"] ;
470 -> 472 ;
}